<?xml version="1.0"?>
<opencv_storage>
<cascade>
  <stageType>BOOST</stageType>
  <featureType>HAAR</featureType>
  <height>30</height>
  <width>20</width>
  <stageParams>
    <boostType>GAB</boostType>
    <minHitRate>9.9500000476837158e-001</minHitRate>
    <maxFalseAlarm>5.0000000000000000e-001</maxFalseAlarm>
    <weightTrimRate>9.4999999999999996e-001</weightTrimRate>
    <maxDepth>1</maxDepth>
    <maxWeakCount>100</maxWeakCount></stageParams>
  <featureParams>
    <maxCatCount>0</maxCatCount>
    <featSize>1</featSize>
    <mode>ALL</mode></featureParams>
  <stageNum>15</stageNum>
  <stages>
    <!-- stage 0 -->
    <_>
      <maxWeakCount>6</maxWeakCount>
      <stageThreshold>-1.5916790962219238e+000</stageThreshold>
      <weakClassifiers>
        <_>
          <internalNodes>
            0 -1 12 -4.2738344520330429e-002</internalNodes>
          <leafValues>
            4.6333333849906921e-001 -7.1021378040313721e-001</leafValues></_>
        <_>
          <internalNodes>
            0 -1 126 2.2104114294052124e-002</internalNodes>
          <leafValues>
            -3.9232486486434937e-001 8.1667101383209229e-001</leafValues></_>
        <_>
          <internalNodes>
            0 -1 4 -6.0414746403694153e-003</internalNodes>
          <leafValues>
            -7.5792181491851807e-001 3.1641346216201782e-001</leafValues></_>
        <_>
          <internalNodes>
            0 -1 142 2.4836726486682892e-002</internalNodes>
          <leafValues>
            -3.7088230252265930e-001 6.5342700481414795e-001</leafValues></_>
        <_>
          <internalNodes>
            0 -1 141 1.3925364241003990e-002</internalNodes>
          <leafValues>
            -3.1070649623870850e-001 7.7380222082138062e-001</leafValues></_>
        <_>
          <internalNodes>
            0 -1 49 3.8526267744600773e-003</internalNodes>
          <leafValues>
            -2.2317698597908020e-001 7.0333611965179443e-001</leafValues></_></weakClassifiers></_>
    <!-- stage 1 -->
    <_>
      <maxWeakCount>6</maxWeakCount>
      <stageThreshold>-7.7865284681320190e-001</stageThreshold>
      <weakClassifiers>
        <_>
          <internalNodes>
            0 -1 140 3.2847225666046143e-002</internalNodes>
          <leafValues>
            -4.8387095332145691e-001 6.1111110448837280e-001</leafValues></_>
        <_>
          <internalNodes>
            0 -1 33 -6.8130373954772949e-002</internalNodes>
          <leafValues>
            8.9770746231079102e-001 -2.6358890533447266e-001</leafValues></_>
        <_>
          <internalNodes>
            0 -1 107 -7.4914902448654175e-002</internalNodes>
          <leafValues>
            8.4523308277130127e-001 -2.8266564011573792e-001</leafValues></_>
        <_>
          <internalNodes>
            0 -1 20 3.8266457617282867e-002</internalNodes>
          <leafValues>
            -2.3529294133186340e-001 8.2152587175369263e-001</leafValues></_>
        <_>
          <internalNodes>
            0 -1 68 -1.3305351138114929e-001</internalNodes>
          <leafValues>
            9.5223021507263184e-001 -2.0897631347179413e-001</leafValues></_>
        <_>
          <internalNodes>
            0 -1 69 1.5888487920165062e-002</internalNodes>
          <leafValues>
            -3.1745618581771851e-001 6.9574195146560669e-001</leafValues></_></weakClassifiers></_>
    <!-- stage 2 -->
    <_>
      <maxWeakCount>7</maxWeakCount>
      <stageThreshold>-6.7474675178527832e-001</stageThreshold>
      <weakClassifiers>
        <_>
          <internalNodes>
            0 -1 17 -1.6325536370277405e-001</internalNodes>
          <leafValues>
            5.2232140302658081e-001 -4.4502618908882141e-001</leafValues></_>
        <_>
          <internalNodes>
            0 -1 75 2.5799099355936050e-002</internalNodes>
          <leafValues>
            -3.2231056690216064e-001 5.9766912460327148e-001</leafValues></_>
        <_>
          <internalNodes>
            0 -1 122 -4.8425933346152306e-003</internalNodes>
          <leafValues>
            -9.0771973133087158e-001 2.1569530665874481e-001</leafValues></_>
        <_>
          <internalNodes>
            0 -1 80 -2.0478721708059311e-003</internalNodes>
          <leafValues>
            -7.4313086271286011e-001 2.0131412148475647e-001</leafValues></_>
        <_>
          <internalNodes>
            0 -1 42 2.7194721624255180e-002</internalNodes>
          <leafValues>
            -2.7477443218231201e-001 6.8737912178039551e-001</leafValues></_>
        <_>
          <internalNodes>
            0 -1 31 -3.8101758807897568e-002</internalNodes>
          <leafValues>
            5.4510587453842163e-001 -3.4091207385063171e-001</leafValues></_>
        <_>
          <internalNodes>
            0 -1 79 1.7602585721760988e-003</internalNodes>
          <leafValues>
            3.4498828649520874e-001 -5.7028561830520630e-001</leafValues></_></weakClassifiers></_>
    <!-- stage 3 -->
    <_>
      <maxWeakCount>8</maxWeakCount>
      <stageThreshold>-7.6052945852279663e-001</stageThreshold>
      <weakClassifiers>
        <_>
          <internalNodes>
            0 -1 37 -3.0827859882265329e-003</internalNodes>
          <leafValues>
            -6.7761194705963135e-001 3.0029153823852539e-001</leafValues></_>
        <_>
          <internalNodes>
            0 -1 15 3.3730134367942810e-002</internalNodes>
          <leafValues>
            -3.2042941451072693e-001 6.6017425060272217e-001</leafValues></_>
        <_>
          <internalNodes>
            0 -1 52 -3.7478908896446228e-002</internalNodes>
          <leafValues>
            -8.5904866456985474e-001 2.5094103813171387e-001</leafValues></_>
        <_>
          <internalNodes>
            0 -1 38 1.6255406662821770e-002</internalNodes>
          <leafValues>
            -3.2251656055450439e-001 6.6335570812225342e-001</leafValues></_>
        <_>
          <internalNodes>
            0 -1 99 -7.4512958526611328e-002</internalNodes>
          <leafValues>
            6.7894375324249268e-001 -3.2010111212730408e-001</leafValues></_>
        <_>
          <internalNodes>
            0 -1 10 6.7658290266990662e-002</internalNodes>
          <leafValues>
            2.7263918519020081e-001 -8.0884569883346558e-001</leafValues></_>
        <_>
          <internalNodes>
            0 -1 93 1.9455121830105782e-002</internalNodes>
          <leafValues>
            -2.8410410881042480e-001 6.8888503313064575e-001</leafValues></_>
        <_>
          <internalNodes>
            0 -1 92 -1.1786215007305145e-001</internalNodes>
          <leafValues>
            8.6282420158386230e-001 -2.0024950802326202e-001</leafValues></_></weakClassifiers></_>
    <!-- stage 4 -->
    <_>
      <maxWeakCount>8</maxWeakCount>
      <stageThreshold>-1.0208890438079834e+000</stageThreshold>
      <weakClassifiers>
        <_>
          <internalNodes>
            0 -1 50 -3.5805241204798222e-003</internalNodes>
          <leafValues>
            -8.2407408952713013e-001 1.9503106176853180e-001</leafValues></_>
        <_>
          <internalNodes>
            0 -1 113 1.1593673378229141e-002</internalNodes>
          <leafValues>
            -3.1669637560844421e-001 6.1669969558715820e-001</leafValues></_>
        <_>
          <internalNodes>
            0 -1 45 5.8403942734003067e-002</internalNodes>
          <leafValues>
            -2.8332874178886414e-001 6.3195323944091797e-001</leafValues></_>
        <_>
          <internalNodes>
            0 -1 63 3.5893684253096581e-003</internalNodes>
          <leafValues>
            1.9403408467769623e-001 -7.9324764013290405e-001</leafValues></_>
        <_>
          <internalNodes>
            0 -1 146 -1.3434269931167364e-003</internalNodes>
          <leafValues>
            3.8675782084465027e-001 -4.2066532373428345e-001</leafValues></_>
        <_>
          <internalNodes>
            0 -1 144 1.7083593411371112e-004</internalNodes>
          <leafValues>
            -3.2616755366325378e-001 4.9620214104652405e-001</leafValues></_>
        <_>
          <internalNodes>
            0 -1 81 -3.1383793801069260e-002</internalNodes>
          <leafValues>
            7.6772516965866089e-001 -2.3045654594898224e-001</leafValues></_>
        <_>
          <internalNodes>
            0 -1 87 8.2791112363338470e-003</internalNodes>
          <leafValues>
            -4.7392868995666504e-001 3.4721893072128296e-001</leafValues></_></weakClassifiers></_>
    <!-- stage 5 -->
    <_>
      <maxWeakCount>8</maxWeakCount>
      <stageThreshold>-8.7618052959442139e-001</stageThreshold>
      <weakClassifiers>
        <_>
          <internalNodes>
            0 -1 86 1.3130785897374153e-002</internalNodes>
          <leafValues>
            -3.4039333462715149e-001 5.6666666269302368e-001</leafValues></_>
        <_>
          <internalNodes>
            0 -1 131 5.0199858844280243e-002</internalNodes>
          <leafValues>
            -3.7361112236976624e-001 4.6199727058410645e-001</leafValues></_>
        <_>
          <internalNodes>
            0 -1 106 1.7646264284849167e-002</internalNodes>
          <leafValues>
            -2.1365877985954285e-001 7.5254863500595093e-001</leafValues></_>
        <_>
          <internalNodes>
            0 -1 116 -2.4777006357908249e-002</internalNodes>
          <leafValues>
            6.0317885875701904e-001 -2.8626576066017151e-001</leafValues></_>
        <_>
          <internalNodes>
            0 -1 102 -5.2881121635437012e-002</internalNodes>
          <leafValues>
            7.4541866779327393e-001 -1.8907754123210907e-001</leafValues></_>
        <_>
          <internalNodes>
            0 -1 9 7.6911866664886475e-002</internalNodes>
          <leafValues>
            1.9128391146659851e-001 -9.2101806402206421e-001</leafValues></_>
        <_>
          <internalNodes>
            0 -1 67 -1.2880402803421021e-001</internalNodes>
          <leafValues>
            6.3410085439682007e-001 -2.3938904702663422e-001</leafValues></_>
        <_>
          <internalNodes>
            0 -1 114 3.1050812453031540e-002</internalNodes>
          <leafValues>
            -1.8603433668613434e-001 7.5037300586700439e-001</leafValues></_></weakClassifiers></_>
    <!-- stage 6 -->
    <_>
      <maxWeakCount>9</maxWeakCount>
      <stageThreshold>-9.7045266628265381e-001</stageThreshold>
      <weakClassifiers>
        <_>
          <internalNodes>
            0 -1 3 -6.7551340907812119e-003</internalNodes>
          <leafValues>
            -8.7912088632583618e-001 1.6567341983318329e-001</leafValues></_>
        <_>
          <internalNodes>
            0 -1 36 4.6064686030149460e-003</internalNodes>
          <leafValues>
            1.6753111779689789e-001 -7.7547049522399902e-001</leafValues></_>
        <_>
          <internalNodes>
            0 -1 60 -1.3095990289002657e-003</internalNodes>
          <leafValues>
            -8.5455697774887085e-001 1.3213998079299927e-001</leafValues></_>
        <_>
          <internalNodes>
            0 -1 65 4.3609524145722389e-003</internalNodes>
          <leafValues>
            -2.3099523782730103e-001 6.1041861772537231e-001</leafValues></_>
        <_>
          <internalNodes>
            0 -1 89 -5.6781470775604248e-002</internalNodes>
          <leafValues>
            6.5785807371139526e-001 -2.1370059251785278e-001</leafValues></_>
        <_>
          <internalNodes>
            0 -1 7 -2.3169755935668945e-002</internalNodes>
          <leafValues>
            3.0389395356178284e-001 -5.2389490604400635e-001</leafValues></_>
        <_>
          <internalNodes>
            0 -1 58 3.0073514208197594e-002</internalNodes>
          <leafValues>
            -2.3538637161254883e-001 5.6299757957458496e-001</leafValues></_>
        <_>
          <internalNodes>
            0 -1 51 -1.8153587589040399e-003</internalNodes>
          <leafValues>
            -6.3011807203292847e-001 1.7547224462032318e-001</leafValues></_>
        <_>
          <internalNodes>
            0 -1 66 1.2450499460101128e-002</internalNodes>
          <leafValues>
            -2.5553160905838013e-001 5.1351070404052734e-001</leafValues></_></weakClassifiers></_>
    <!-- stage 7 -->
    <_>
      <maxWeakCount>9</maxWeakCount>
      <stageThreshold>-5.9511756896972656e-001</stageThreshold>
      <weakClassifiers>
        <_>
          <internalNodes>
            0 -1 2 8.8160950690507889e-004</internalNodes>
          <leafValues>
            -4.3310657143592834e-001 2.9310345649719238e-001</leafValues></_>
        <_>
          <internalNodes>
            0 -1 139 7.3016263544559479e-002</internalNodes>
          <leafValues>
            -2.9986774921417236e-001 4.3334227800369263e-001</leafValues></_>
        <_>
          <internalNodes>
            0 -1 19 2.4971218779683113e-002</internalNodes>
          <leafValues>
            -2.6206228137016296e-001 5.0483286380767822e-001</leafValues></_>
        <_>
          <internalNodes>
            0 -1 137 3.1889282166957855e-002</internalNodes>
          <leafValues>
            -2.9608863592147827e-001 5.9053975343704224e-001</leafValues></_>
        <_>
          <internalNodes>
            0 -1 13 -4.0366873145103455e-002</internalNodes>
          <leafValues>
            4.8406693339347839e-001 -2.1869170665740967e-001</leafValues></_>
        <_>
          <internalNodes>
            0 -1 59 -1.0104040801525116e-001</internalNodes>
          <leafValues>
            5.7407194375991821e-001 -2.2966215014457703e-001</leafValues></_>
        <_>
          <internalNodes>
            0 -1 88 4.0499784052371979e-002</internalNodes>
          <leafValues>
            -1.8099869787693024e-001 5.9886133670806885e-001</leafValues></_>
        <_>
          <internalNodes>
            0 -1 123 -3.5070285201072693e-002</internalNodes>
          <leafValues>
            6.0968595743179321e-001 -2.1358826756477356e-001</leafValues></_>
        <_>
          <internalNodes>
            0 -1 135 4.3340804404579103e-004</internalNodes>
          <leafValues>
            1.6462823748588562e-001 -6.7688018083572388e-001</leafValues></_></weakClassifiers></_>
    <!-- stage 8 -->
    <_>
      <maxWeakCount>12</maxWeakCount>
      <stageThreshold>-6.8808776140213013e-001</stageThreshold>
      <weakClassifiers>
        <_>
          <internalNodes>
            0 -1 11 3.5885978490114212e-002</internalNodes>
          <leafValues>
            -2.1336761116981506e-001 5.9670782089233398e-001</leafValues></_>
        <_>
          <internalNodes>
            0 -1 78 1.4472462236881256e-002</internalNodes>
          <leafValues>
            -2.3076999187469482e-001 4.9674934148788452e-001</leafValues></_>
        <_>
          <internalNodes>
            0 -1 149 8.3074485883116722e-004</internalNodes>
          <leafValues>
            -3.8280913233757019e-001 3.2921105623245239e-001</leafValues></_>
        <_>
          <internalNodes>
            0 -1 85 -1.2691062688827515e-001</internalNodes>
          <leafValues>
            -9.0277111530303955e-001 1.3855521380901337e-001</leafValues></_>
        <_>
          <internalNodes>
            0 -1 57 3.3823080360889435e-002</internalNodes>
          <leafValues>
            -2.0544354617595673e-001 6.1645221710205078e-001</leafValues></_>
        <_>
          <internalNodes>
            0 -1 21 -1.1060509830713272e-001</internalNodes>
          <leafValues>
            4.9580240249633789e-001 -2.2538371384143829e-001</leafValues></_>
        <_>
          <internalNodes>
            0 -1 28 -4.9569848924875259e-003</internalNodes>
          <leafValues>
            -8.6325454711914062e-001 1.5291112661361694e-001</leafValues></_>
        <_>
          <internalNodes>
            0 -1 72 -3.3019948750734329e-002</internalNodes>
          <leafValues>
            6.9001173973083496e-001 -1.9748683273792267e-001</leafValues></_>
        <_>
          <internalNodes>
            0 -1 40 -2.4002920836210251e-002</internalNodes>
          <leafValues>
            6.2692493200302124e-001 -1.5052025020122528e-001</leafValues></_>
        <_>
          <internalNodes>
            0 -1 103 2.0007599145174026e-002</internalNodes>
          <leafValues>
            -2.5898748636245728e-001 5.9830439090728760e-001</leafValues></_>
        <_>
          <internalNodes>
            0 -1 61 2.6973476633429527e-002</internalNodes>
          <leafValues>
            -2.6912665367126465e-001 4.3465453386306763e-001</leafValues></_>
        <_>
          <internalNodes>
            0 -1 96 -3.0434668064117432e-002</internalNodes>
          <leafValues>
            6.9070297479629517e-001 -1.4666172862052917e-001</leafValues></_></weakClassifiers></_>
    <!-- stage 9 -->
    <_>
      <maxWeakCount>10</maxWeakCount>
      <stageThreshold>-7.1287560462951660e-001</stageThreshold>
      <weakClassifiers>
        <_>
          <internalNodes>
            0 -1 126 3.3535234630107880e-002</internalNodes>
          <leafValues>
            -2.4456521868705750e-001 5.5789476633071899e-001</leafValues></_>
        <_>
          <internalNodes>
            0 -1 6 9.0180654078722000e-003</internalNodes>
          <leafValues>
            2.0227308571338654e-001 -6.6892957687377930e-001</leafValues></_>
        <_>
          <internalNodes>
            0 -1 27 4.2692720890045166e-003</internalNodes>
          <leafValues>
            -2.8061944246292114e-001 4.8136785626411438e-001</leafValues></_>
        <_>
          <internalNodes>
            0 -1 119 3.0248370021581650e-003</internalNodes>
          <leafValues>
            -2.0197294652462006e-001 6.1375665664672852e-001</leafValues></_>
        <_>
          <internalNodes>
            0 -1 35 -1.4639745932072401e-003</internalNodes>
          <leafValues>
            -5.6032240390777588e-001 2.7868404984474182e-001</leafValues></_>
        <_>
          <internalNodes>
            0 -1 54 2.5095518678426743e-002</internalNodes>
          <leafValues>
            -1.8526890873908997e-001 8.1014835834503174e-001</leafValues></_>
        <_>
          <internalNodes>
            0 -1 16 2.1181862801313400e-002</internalNodes>
          <leafValues>
            -3.1648856401443481e-001 3.5338604450225830e-001</leafValues></_>
        <_>
          <internalNodes>
            0 -1 101 1.9620209932327271e-002</internalNodes>
          <leafValues>
            -1.1269140243530273e-001 6.7600667476654053e-001</leafValues></_>
        <_>
          <internalNodes>
            0 -1 90 -1.0792423784732819e-001</internalNodes>
          <leafValues>
            4.7176882624626160e-001 -2.4326334893703461e-001</leafValues></_>
        <_>
          <internalNodes>
            0 -1 130 1.5655089169740677e-002</internalNodes>
          <leafValues>
            -2.0181839168071747e-001 5.3237879276275635e-001</leafValues></_></weakClassifiers></_>
    <!-- stage 10 -->
    <_>
      <maxWeakCount>12</maxWeakCount>
      <stageThreshold>-8.3127355575561523e-001</stageThreshold>
      <weakClassifiers>
        <_>
          <internalNodes>
            0 -1 115 2.9140178114175797e-002</internalNodes>
          <leafValues>
            -2.6144754886627197e-001 4.5348837971687317e-001</leafValues></_>
        <_>
          <internalNodes>
            0 -1 64 4.2592315003275871e-004</internalNodes>
          <leafValues>
            -3.3407461643218994e-001 2.8787276148796082e-001</leafValues></_>
        <_>
          <internalNodes>
            0 -1 132 7.2271436452865601e-002</internalNodes>
          <leafValues>
            -3.2790529727935791e-001 3.1577104330062866e-001</leafValues></_>
        <_>
          <internalNodes>
            0 -1 105 1.1831114068627357e-002</internalNodes>
          <leafValues>
            -2.3772925138473511e-001 4.9983152747154236e-001</leafValues></_>
        <_>
          <internalNodes>
            0 -1 134 -7.6779699884355068e-004</internalNodes>
          <leafValues>
            -6.8409746885299683e-001 2.0254461467266083e-001</leafValues></_>
        <_>
          <internalNodes>
            0 -1 104 2.3543592542409897e-002</internalNodes>
          <leafValues>
            -2.2424206137657166e-001 4.7280183434486389e-001</leafValues></_>
        <_>
          <internalNodes>
            0 -1 95 2.3734584450721741e-002</internalNodes>
          <leafValues>
            -1.9119761884212494e-001 6.2036663293838501e-001</leafValues></_>
        <_>
          <internalNodes>
            0 -1 14 -1.7690170556306839e-002</internalNodes>
          <leafValues>
            2.6960772275924683e-001 -4.0178412199020386e-001</leafValues></_>
        <_>
          <internalNodes>
            0 -1 23 -2.9209934175014496e-002</internalNodes>
          <leafValues>
            -7.3409670591354370e-001 1.3158522546291351e-001</leafValues></_>
        <_>
          <internalNodes>
            0 -1 48 1.0869404301047325e-002</internalNodes>
          <leafValues>
            -2.4116909503936768e-001 4.1419067978858948e-001</leafValues></_>
        <_>
          <internalNodes>
            0 -1 29 -1.1590335518121719e-002</internalNodes>
          <leafValues>
            -6.4512741565704346e-001 1.3775120675563812e-001</leafValues></_>
        <_>
          <internalNodes>
            0 -1 22 2.1582648158073425e-002</internalNodes>
          <leafValues>
            -2.1183083951473236e-001 4.7946390509605408e-001</leafValues></_></weakClassifiers></_>
    <!-- stage 11 -->
    <_>
      <maxWeakCount>12</maxWeakCount>
      <stageThreshold>-8.0842220783233643e-001</stageThreshold>
      <weakClassifiers>
        <_>
          <internalNodes>
            0 -1 151 -2.6815045624971390e-002</internalNodes>
          <leafValues>
            5.4337900876998901e-001 -1.7456358671188354e-001</leafValues></_>
        <_>
          <internalNodes>
            0 -1 110 1.8688656855374575e-003</internalNodes>
          <leafValues>
            1.1058420687913895e-001 -8.0950516462326050e-001</leafValues></_>
        <_>
          <internalNodes>
            0 -1 25 -3.3500850200653076e-002</internalNodes>
          <leafValues>
            2.8754398226737976e-001 -3.4106326103210449e-001</leafValues></_>
        <_>
          <internalNodes>
            0 -1 100 1.8310546875000000e-002</internalNodes>
          <leafValues>
            -2.5291875004768372e-001 4.3196061253547668e-001</leafValues></_>
        <_>
          <internalNodes>
            0 -1 1 1.8539460143074393e-004</internalNodes>
          <leafValues>
            -3.3103373646736145e-001 2.7603146433830261e-001</leafValues></_>
        <_>
          <internalNodes>
            0 -1 77 1.6005471348762512e-002</internalNodes>
          <leafValues>
            -3.0507287383079529e-001 3.0193802714347839e-001</leafValues></_>
        <_>
          <internalNodes>
            0 -1 82 2.9203169047832489e-002</internalNodes>
          <leafValues>
            -1.4725655317306519e-001 5.9668046236038208e-001</leafValues></_>
        <_>
          <internalNodes>
            0 -1 108 1.4702457934617996e-002</internalNodes>
          <leafValues>
            -1.7925746738910675e-001 5.0534880161285400e-001</leafValues></_>
        <_>
          <internalNodes>
            0 -1 0 -5.2946503274142742e-004</internalNodes>
          <leafValues>
            -7.6519733667373657e-001 1.5590488910675049e-001</leafValues></_>
        <_>
          <internalNodes>
            0 -1 128 -9.2389464378356934e-002</internalNodes>
          <leafValues>
            5.4300773143768311e-001 -1.9665473699569702e-001</leafValues></_>
        <_>
          <internalNodes>
            0 -1 43 -5.4762880317866802e-003</internalNodes>
          <leafValues>
            -8.3390086889266968e-001 1.2792989611625671e-001</leafValues></_>
        <_>
          <internalNodes>
            0 -1 53 5.2932940423488617e-002</internalNodes>
          <leafValues>
            -1.5587279200553894e-001 6.3496810197830200e-001</leafValues></_></weakClassifiers></_>
    <!-- stage 12 -->
    <_>
      <maxWeakCount>14</maxWeakCount>
      <stageThreshold>-9.7035259008407593e-001</stageThreshold>
      <weakClassifiers>
        <_>
          <internalNodes>
            0 -1 125 2.3846166208386421e-002</internalNodes>
          <leafValues>
            -2.9448819160461426e-001 4.3005180358886719e-001</leafValues></_>
        <_>
          <internalNodes>
            0 -1 62 1.9418854499235749e-003</internalNodes>
          <leafValues>
            1.3961118459701538e-001 -7.6737862825393677e-001</leafValues></_>
        <_>
          <internalNodes>
            0 -1 71 -5.2174702286720276e-003</internalNodes>
          <leafValues>
            -8.3370453119277954e-001 1.5063756704330444e-001</leafValues></_>
        <_>
          <internalNodes>
            0 -1 120 -2.3694444447755814e-002</internalNodes>
          <leafValues>
            7.2982406616210938e-001 -1.7274069786071777e-001</leafValues></_>
        <_>
          <internalNodes>
            0 -1 112 3.0467269942164421e-002</internalNodes>
          <leafValues>
            -2.0275676250457764e-001 5.5365234613418579e-001</leafValues></_>
        <_>
          <internalNodes>
            0 -1 117 1.0910547338426113e-002</internalNodes>
          <leafValues>
            -1.1867435276508331e-001 6.3804686069488525e-001</leafValues></_>
        <_>
          <internalNodes>
            0 -1 133 -2.0601772121153772e-004</internalNodes>
          <leafValues>
            3.2913431525230408e-001 -3.0339750647544861e-001</leafValues></_>
        <_>
          <internalNodes>
            0 -1 97 1.0287454351782799e-002</internalNodes>
          <leafValues>
            -1.7446288466453552e-001 6.2607192993164062e-001</leafValues></_>
        <_>
          <internalNodes>
            0 -1 136 -1.6418445110321045e-001</internalNodes>
          <leafValues>
            -8.1297129392623901e-001 1.5099687874317169e-001</leafValues></_>
        <_>
          <internalNodes>
            0 -1 18 2.4781963229179382e-001</internalNodes>
          <leafValues>
            7.8120477497577667e-002 -9.1629356145858765e-001</leafValues></_>
        <_>
          <internalNodes>
            0 -1 143 -4.6226955950260162e-002</internalNodes>
          <leafValues>
            7.2731113433837891e-001 -1.2662713229656219e-001</leafValues></_>
        <_>
          <internalNodes>
            0 -1 94 3.8474157918244600e-004</internalNodes>
          <leafValues>
            1.7476236820220947e-001 -5.1667958498001099e-001</leafValues></_>
        <_>
          <internalNodes>
            0 -1 73 -1.6908480226993561e-001</internalNodes>
          <leafValues>
            5.7800418138504028e-001 -1.4705274999141693e-001</leafValues></_>
        <_>
          <internalNodes>
            0 -1 5 -2.1278213243931532e-003</internalNodes>
          <leafValues>
            -5.4956561326980591e-001 1.7080970108509064e-001</leafValues></_></weakClassifiers></_>
    <!-- stage 13 -->
    <_>
      <maxWeakCount>16</maxWeakCount>
      <stageThreshold>-6.9537371397018433e-001</stageThreshold>
      <weakClassifiers>
        <_>
          <internalNodes>
            0 -1 148 -4.2496420443058014e-002</internalNodes>
          <leafValues>
            8.8764047622680664e-001 -1.0729613900184631e-001</leafValues></_>
        <_>
          <internalNodes>
            0 -1 32 2.9777307645417750e-005</internalNodes>
          <leafValues>
            -3.9530676603317261e-001 2.0971958339214325e-001</leafValues></_>
        <_>
          <internalNodes>
            0 -1 46 -2.4851649999618530e-002</internalNodes>
          <leafValues>
            5.5076867341995239e-001 -1.1135505139827728e-001</leafValues></_>
        <_>
          <internalNodes>
            0 -1 41 2.4271223694086075e-002</internalNodes>
          <leafValues>
            -2.2783651947975159e-001 3.2464361190795898e-001</leafValues></_>
        <_>
          <internalNodes>
            0 -1 39 8.6599442875012755e-004</internalNodes>
          <leafValues>
            -2.8968992829322815e-001 2.8605094552040100e-001</leafValues></_>
        <_>
          <internalNodes>
            0 -1 26 6.8386243656277657e-003</internalNodes>
          <leafValues>
            -2.7016329765319824e-001 2.7333474159240723e-001</leafValues></_>
        <_>
          <internalNodes>
            0 -1 129 3.0444629490375519e-002</internalNodes>
          <leafValues>
            -1.6602772474288940e-001 4.8670765757560730e-001</leafValues></_>
        <_>
          <internalNodes>
            0 -1 91 -3.5032197833061218e-002</internalNodes>
          <leafValues>
            4.7009140253067017e-001 -1.9480703771114349e-001</leafValues></_>
        <_>
          <internalNodes>
            0 -1 111 7.4412832036614418e-003</internalNodes>
          <leafValues>
            -1.1849579960107803e-001 5.4682576656341553e-001</leafValues></_>
        <_>
          <internalNodes>
            0 -1 138 3.1300496309995651e-002</internalNodes>
          <leafValues>
            -1.5305022895336151e-001 5.1974576711654663e-001</leafValues></_>
        <_>
          <internalNodes>
            0 -1 8 -1.0641275346279144e-001</internalNodes>
          <leafValues>
            1.9950667023658752e-001 -4.0293353796005249e-001</leafValues></_>
        <_>
          <internalNodes>
            0 -1 150 9.3546165153384209e-003</internalNodes>
          <leafValues>
            -2.0530983805656433e-001 4.5663851499557495e-001</leafValues></_>
        <_>
          <internalNodes>
            0 -1 121 -1.5438231639564037e-003</internalNodes>
          <leafValues>
            -9.0106266736984253e-001 1.0564651340246201e-001</leafValues></_>
        <_>
          <internalNodes>
            0 -1 56 7.0299431681632996e-003</internalNodes>
          <leafValues>
            -2.1408037841320038e-001 4.2890983819961548e-001</leafValues></_>
        <_>
          <internalNodes>
            0 -1 84 7.2860583662986755e-002</internalNodes>
          <leafValues>
            -1.5782515704631805e-001 5.3554922342300415e-001</leafValues></_>
        <_>
          <internalNodes>
            0 -1 127 -1.8034078180789948e-002</internalNodes>
          <leafValues>
            6.2312114238739014e-001 -1.1354833096265793e-001</leafValues></_></weakClassifiers></_>
    <!-- stage 14 -->
    <_>
      <maxWeakCount>16</maxWeakCount>
      <stageThreshold>-9.0671485662460327e-001</stageThreshold>
      <weakClassifiers>
        <_>
          <internalNodes>
            0 -1 47 -1.4454039931297302e-001</internalNodes>
          <leafValues>
            6.1748635768890381e-001 -1.5990453958511353e-001</leafValues></_>
        <_>
          <internalNodes>
            0 -1 147 -5.6648952886462212e-004</internalNodes>
          <leafValues>
            -5.3789287805557251e-001 1.7546403408050537e-001</leafValues></_>
        <_>
          <internalNodes>
            0 -1 118 1.9840788096189499e-002</internalNodes>
          <leafValues>
            -1.3875550031661987e-001 5.9138053655624390e-001</leafValues></_>
        <_>
          <internalNodes>
            0 -1 44 -1.0333568789064884e-003</internalNodes>
          <leafValues>
            -7.9434937238693237e-001 9.3793548643589020e-002</leafValues></_>
        <_>
          <internalNodes>
            0 -1 145 1.5600846381857991e-003</internalNodes>
          <leafValues>
            -3.0001437664031982e-001 2.9740008711814880e-001</leafValues></_>
        <_>
          <internalNodes>
            0 -1 24 8.9101046323776245e-003</internalNodes>
          <leafValues>
            -1.7394703626632690e-001 4.3222555518150330e-001</leafValues></_>
        <_>
          <internalNodes>
            0 -1 109 2.3170741769718006e-005</internalNodes>
          <leafValues>
            -3.4642034769058228e-001 2.2075875103473663e-001</leafValues></_>
        <_>
          <internalNodes>
            0 -1 70 -2.2226227447390556e-003</internalNodes>
          <leafValues>
            3.4219843149185181e-001 -2.1360535919666290e-001</leafValues></_>
        <_>
          <internalNodes>
            0 -1 98 5.9282112866640091e-002</internalNodes>
          <leafValues>
            -1.6498829424381256e-001 4.8267647624015808e-001</leafValues></_>
        <_>
          <internalNodes>
            0 -1 76 4.0022030472755432e-002</internalNodes>
          <leafValues>
            -1.7999054491519928e-001 5.2434462308883667e-001</leafValues></_>
        <_>
          <internalNodes>
            0 -1 74 1.3756310939788818e-001</internalNodes>
          <leafValues>
            -1.4199335873126984e-001 5.6707566976547241e-001</leafValues></_>
        <_>
          <internalNodes>
            0 -1 30 3.8112219772301614e-004</internalNodes>
          <leafValues>
            1.6384707391262054e-001 -5.0743603706359863e-001</leafValues></_>
        <_>
          <internalNodes>
            0 -1 34 2.9644276946783066e-002</internalNodes>
          <leafValues>
            9.8559334874153137e-002 -8.1470751762390137e-001</leafValues></_>
        <_>
          <internalNodes>
            0 -1 83 -8.0780863761901855e-002</internalNodes>
          <leafValues>
            4.1752293705940247e-001 -1.8845592439174652e-001</leafValues></_>
        <_>
          <internalNodes>
            0 -1 124 4.0400706231594086e-002</internalNodes>
          <leafValues>
            -1.6421630978584290e-001 5.4191327095031738e-001</leafValues></_>
        <_>
          <internalNodes>
            0 -1 55 1.0952712595462799e-001</internalNodes>
          <leafValues>
            1.4326247572898865e-001 -6.4988827705383301e-001</leafValues></_></weakClassifiers></_></stages>
  <features>
    <_>
      <rects>
        <_>
          0 0 4 1 -1.</_>
        <_>
          1 0 2 1 2.</_></rects>
      <tilted>0</tilted></_>
    <_>
      <rects>
        <_>
          0 0 3 2 -1.</_>
        <_>
          0 1 3 1 2.</_></rects>
      <tilted>0</tilted></_>
    <_>
      <rects>
        <_>
          0 0 3 6 -1.</_>
        <_>
          0 3 3 3 2.</_></rects>
      <tilted>0</tilted></_>
    <_>
      <rects>
        <_>
          0 0 12 3 -1.</_>
        <_>
          3 0 6 3 2.</_></rects>
      <tilted>0</tilted></_>
    <_>
      <rects>
        <_>
          0 0 16 2 -1.</_>
        <_>
          4 0 8 2 2.</_></rects>
      <tilted>0</tilted></_>
    <_>
      <rects>
        <_>
          0 0 20 1 -1.</_>
        <_>
          5 0 10 1 2.</_></rects>
      <tilted>0</tilted></_>
    <_>
      <rects>
        <_>
          0 0 15 3 -1.</_>
        <_>
          5 0 5 3 3.</_></rects>
      <tilted>0</tilted></_>
    <_>
      <rects>
        <_>
          0 0 10 29 -1.</_>
        <_>
          5 0 5 29 2.</_></rects>
      <tilted>0</tilted></_>
    <_>
      <rects>
        <_>
          0 0 20 29 -1.</_>
        <_>
          5 0 10 29 2.</_></rects>
      <tilted>0</tilted></_>
    <_>
      <rects>
        <_>
          0 0 18 12 -1.</_>
        <_>
          9 0 9 12 2.</_></rects>
      <tilted>0</tilted></_>
    <_>
      <rects>
        <_>
          0 0 18 15 -1.</_>
        <_>
          9 0 9 15 2.</_></rects>
      <tilted>0</tilted></_>
    <_>
      <rects>
        <_>
          0 0 20 6 -1.</_>
        <_>
          0 2 20 2 3.</_></rects>
      <tilted>0</tilted></_>
    <_>
      <rects>
        <_>
          0 1 20 29 -1.</_>
        <_>
          5 1 10 29 2.</_></rects>
      <tilted>0</tilted></_>
    <_>
      <rects>
        <_>
          0 2 6 26 -1.</_>
        <_>
          3 2 3 26 2.</_></rects>
      <tilted>0</tilted></_>
    <_>
      <rects>
        <_>
          0 2 10 11 -1.</_>
        <_>
          5 2 5 11 2.</_></rects>
      <tilted>0</tilted></_>
    <_>
      <rects>
        <_>
          0 4 6 23 -1.</_>
        <_>
          2 4 2 23 3.</_></rects>
      <tilted>0</tilted></_>
    <_>
      <rects>
        <_>
          0 4 9 9 -1.</_>
        <_>
          3 7 3 3 9.</_></rects>
      <tilted>0</tilted></_>
    <_>
      <rects>
        <_>
          0 4 20 25 -1.</_>
        <_>
          5 4 10 25 2.</_></rects>
      <tilted>0</tilted></_>
    <_>
      <rects>
        <_>
          0 6 20 21 -1.</_>
        <_>
          0 13 20 7 3.</_></rects>
      <tilted>0</tilted></_>
    <_>
      <rects>
        <_>
          0 9 8 13 -1.</_>
        <_>
          2 9 4 13 2.</_></rects>
      <tilted>0</tilted></_>
    <_>
      <rects>
        <_>
          0 9 8 19 -1.</_>
        <_>
          2 9 4 19 2.</_></rects>
      <tilted>0</tilted></_>
    <_>
      <rects>
        <_>
          0 9 8 21 -1.</_>
        <_>
          4 9 4 21 2.</_></rects>
      <tilted>0</tilted></_>
    <_>
      <rects>
        <_>
          0 11 8 6 -1.</_>
        <_>
          2 11 4 6 2.</_></rects>
      <tilted>0</tilted></_>
    <_>
      <rects>
        <_>
          0 11 7 8 -1.</_>
        <_>
          0 15 7 4 2.</_></rects>
      <tilted>0</tilted></_>
    <_>
      <rects>
        <_>
          0 15 4 13 -1.</_>
        <_>
          1 15 2 13 2.</_></rects>
      <tilted>0</tilted></_>
    <_>
      <rects>
        <_>
          0 22 20 7 -1.</_>
        <_>
          5 22 10 7 2.</_></rects>
      <tilted>0</tilted></_>
    <_>
      <rects>
        <_>
          0 24 18 6 -1.</_>
        <_>
          0 27 18 3 2.</_></rects>
      <tilted>0</tilted></_>
    <_>
      <rects>
        <_>
          0 28 17 2 -1.</_>
        <_>
          0 29 17 1 2.</_></rects>
      <tilted>0</tilted></_>
    <_>
      <rects>
        <_>
          1 0 9 2 -1.</_>
        <_>
          4 0 3 2 3.</_></rects>
      <tilted>0</tilted></_>
    <_>
      <rects>
        <_>
          1 0 15 4 -1.</_>
        <_>
          6 0 5 4 3.</_></rects>
      <tilted>0</tilted></_>
    <_>
      <rects>
        <_>
          1 2 2 2 -1.</_>
        <_>
          2 2 1 2 2.</_></rects>
      <tilted>0</tilted></_>
    <_>
      <rects>
        <_>
          1 2 6 27 -1.</_>
        <_>
          4 2 3 27 2.</_></rects>
      <tilted>0</tilted></_>
    <_>
      <rects>
        <_>
          1 3 1 4 -1.</_>
        <_>
          1 5 1 2 2.</_></rects>
      <tilted>0</tilted></_>
    <_>
      <rects>
        <_>
          1 10 12 13 -1.</_>
        <_>
          4 10 6 13 2.</_></rects>
      <tilted>0</tilted></_>
    <_>
      <rects>
        <_>
          1 10 6 9 -1.</_>
        <_>
          1 13 6 3 3.</_></rects>
      <tilted>0</tilted></_>
    <_>
      <rects>
        <_>
          1 19 2 4 -1.</_>
        <_>
          1 21 2 2 2.</_></rects>
      <tilted>0</tilted></_>
    <_>
      <rects>
        <_>
          2 0 12 2 -1.</_>
        <_>
          6 0 4 2 3.</_></rects>
      <tilted>0</tilted></_>
    <_>
      <rects>
        <_>
          2 0 16 2 -1.</_>
        <_>
          6 0 8 2 2.</_></rects>
      <tilted>0</tilted></_>
    <_>
      <rects>
        <_>
          2 0 10 8 -1.</_>
        <_>
          2 2 10 4 2.</_></rects>
      <tilted>0</tilted></_>
    <_>
      <rects>
        <_>
          2 1 4 6 -1.</_>
        <_>
          2 3 4 2 3.</_></rects>
      <tilted>0</tilted></_>
    <_>
      <rects>
        <_>
          2 1 8 10 -1.</_>
        <_>
          2 1 4 5 2.</_>
        <_>
          6 6 4 5 2.</_></rects>
      <tilted>0</tilted></_>
    <_>
      <rects>
        <_>
          2 3 6 12 -1.</_>
        <_>
          4 7 2 4 9.</_></rects>
      <tilted>0</tilted></_>
    <_>
      <rects>
        <_>
          2 10 8 18 -1.</_>
        <_>
          4 10 4 18 2.</_></rects>
      <tilted>0</tilted></_>
    <_>
      <rects>
        <_>
          2 16 2 6 -1.</_>
        <_>
          2 18 2 2 3.</_></rects>
      <tilted>0</tilted></_>
    <_>
      <rects>
        <_>
          3 0 3 3 -1.</_>
        <_>
          4 0 1 3 3.</_></rects>
      <tilted>0</tilted></_>
    <_>
      <rects>
        <_>
          3 0 14 12 -1.</_>
        <_>
          3 4 14 4 3.</_></rects>
      <tilted>0</tilted></_>
    <_>
      <rects>
        <_>
          3 5 8 2 -1.</_>
        <_>
          5 7 4 2 2.</_></rects>
      <tilted>1</tilted></_>
    <_>
      <rects>
        <_>
          3 24 15 6 -1.</_>
        <_>
          8 26 5 2 9.</_></rects>
      <tilted>0</tilted></_>
    <_>
      <rects>
        <_>
          3 26 12 4 -1.</_>
        <_>
          3 28 12 2 2.</_></rects>
      <tilted>0</tilted></_>
    <_>
      <rects>
        <_>
          3 28 15 2 -1.</_>
        <_>
          3 29 15 1 2.</_></rects>
      <tilted>0</tilted></_>
    <_>
      <rects>
        <_>
          4 0 12 1 -1.</_>
        <_>
          8 0 4 1 3.</_></rects>
      <tilted>0</tilted></_>
    <_>
      <rects>
        <_>
          4 0 16 1 -1.</_>
        <_>
          8 0 8 1 2.</_></rects>
      <tilted>0</tilted></_>
    <_>
      <rects>
        <_>
          4 0 16 6 -1.</_>
        <_>
          12 0 8 6 2.</_></rects>
      <tilted>0</tilted></_>
    <_>
      <rects>
        <_>
          4 1 9 3 -1.</_>
        <_>
          7 4 3 3 3.</_></rects>
      <tilted>1</tilted></_>
    <_>
      <rects>
        <_>
          4 4 6 8 -1.</_>
        <_>
          4 4 3 4 2.</_>
        <_>
          7 8 3 4 2.</_></rects>
      <tilted>0</tilted></_>
    <_>
      <rects>
        <_>
          4 5 16 4 -1.</_>
        <_>
          4 5 8 4 2.</_></rects>
      <tilted>1</tilted></_>
    <_>
      <rects>
        <_>
          4 10 6 4 -1.</_>
        <_>
          6 10 2 4 3.</_></rects>
      <tilted>0</tilted></_>
    <_>
      <rects>
        <_>
          4 13 9 4 -1.</_>
        <_>
          7 16 3 4 3.</_></rects>
      <tilted>1</tilted></_>
    <_>
      <rects>
        <_>
          4 21 12 5 -1.</_>
        <_>
          7 21 6 5 2.</_></rects>
      <tilted>0</tilted></_>
    <_>
      <rects>
        <_>
          4 23 15 6 -1.</_>
        <_>
          9 25 5 2 9.</_></rects>
      <tilted>0</tilted></_>
    <_>
      <rects>
        <_>
          5 0 8 1 -1.</_>
        <_>
          7 0 4 1 2.</_></rects>
      <tilted>0</tilted></_>
    <_>
      <rects>
        <_>
          5 0 6 12 -1.</_>
        <_>
          7 4 2 4 9.</_></rects>
      <tilted>0</tilted></_>
    <_>
      <rects>
        <_>
          5 0 9 1 -1.</_>
        <_>
          8 0 3 1 3.</_></rects>
      <tilted>0</tilted></_>
    <_>
      <rects>
        <_>
          5 0 9 2 -1.</_>
        <_>
          8 0 3 2 3.</_></rects>
      <tilted>0</tilted></_>
    <_>
      <rects>
        <_>
          5 0 9 2 -1.</_>
        <_>
          5 1 9 1 2.</_></rects>
      <tilted>0</tilted></_>
    <_>
      <rects>
        <_>
          5 0 13 2 -1.</_>
        <_>
          5 1 13 1 2.</_></rects>
      <tilted>0</tilted></_>
    <_>
      <rects>
        <_>
          5 2 7 8 -1.</_>
        <_>
          5 4 7 4 2.</_></rects>
      <tilted>0</tilted></_>
    <_>
      <rects>
        <_>
          5 7 12 9 -1.</_>
        <_>
          9 10 4 3 9.</_></rects>
      <tilted>0</tilted></_>
    <_>
      <rects>
        <_>
          5 12 12 9 -1.</_>
        <_>
          9 15 4 3 9.</_></rects>
      <tilted>0</tilted></_>
    <_>
      <rects>
        <_>
          5 21 9 6 -1.</_>
        <_>
          8 23 3 2 9.</_></rects>
      <tilted>0</tilted></_>
    <_>
      <rects>
        <_>
          5 26 13 4 -1.</_>
        <_>
          5 27 13 2 2.</_></rects>
      <tilted>0</tilted></_>
    <_>
      <rects>
        <_>
          6 0 9 2 -1.</_>
        <_>
          9 0 3 2 3.</_></rects>
      <tilted>0</tilted></_>
    <_>
      <rects>
        <_>
          6 0 13 8 -1.</_>
        <_>
          6 2 13 4 2.</_></rects>
      <tilted>0</tilted></_>
    <_>
      <rects>
        <_>
          6 4 12 9 -1.</_>
        <_>
          10 7 4 3 9.</_></rects>
      <tilted>0</tilted></_>
    <_>
      <rects>
        <_>
          6 4 12 12 -1.</_>
        <_>
          10 8 4 4 9.</_></rects>
      <tilted>0</tilted></_>
    <_>
      <rects>
        <_>
          6 10 9 10 -1.</_>
        <_>
          9 10 3 10 3.</_></rects>
      <tilted>0</tilted></_>
    <_>
      <rects>
        <_>
          6 10 10 12 -1.</_>
        <_>
          6 14 10 4 3.</_></rects>
      <tilted>0</tilted></_>
    <_>
      <rects>
        <_>
          6 11 3 18 -1.</_>
        <_>
          6 20 3 9 2.</_></rects>
      <tilted>0</tilted></_>
    <_>
      <rects>
        <_>
          6 20 8 6 -1.</_>
        <_>
          8 20 4 6 2.</_></rects>
      <tilted>0</tilted></_>
    <_>
      <rects>
        <_>
          7 0 12 2 -1.</_>
        <_>
          10 0 6 2 2.</_></rects>
      <tilted>0</tilted></_>
    <_>
      <rects>
        <_>
          7 0 12 1 -1.</_>
        <_>
          11 0 4 1 3.</_></rects>
      <tilted>0</tilted></_>
    <_>
      <rects>
        <_>
          7 0 10 6 -1.</_>
        <_>
          7 3 10 3 2.</_></rects>
      <tilted>0</tilted></_>
    <_>
      <rects>
        <_>
          7 4 2 16 -1.</_>
        <_>
          7 12 2 8 2.</_></rects>
      <tilted>0</tilted></_>
    <_>
      <rects>
        <_>
          7 4 9 9 -1.</_>
        <_>
          10 7 3 3 9.</_></rects>
      <tilted>0</tilted></_>
    <_>
      <rects>
        <_>
          7 8 6 12 -1.</_>
        <_>
          9 12 2 4 9.</_></rects>
      <tilted>0</tilted></_>
    <_>
      <rects>
        <_>
          7 8 12 22 -1.</_>
        <_>
          7 19 12 11 2.</_></rects>
      <tilted>0</tilted></_>
    <_>
      <rects>
        <_>
          7 10 9 5 -1.</_>
        <_>
          10 10 3 5 3.</_></rects>
      <tilted>0</tilted></_>
    <_>
      <rects>
        <_>
          7 12 11 18 -1.</_>
        <_>
          7 21 11 9 2.</_></rects>
      <tilted>0</tilted></_>
    <_>
      <rects>
        <_>
          7 13 4 16 -1.</_>
        <_>
          7 21 4 8 2.</_></rects>
      <tilted>0</tilted></_>
    <_>
      <rects>
        <_>
          7 15 12 6 -1.</_>
        <_>
          10 15 6 6 2.</_></rects>
      <tilted>0</tilted></_>
    <_>
      <rects>
        <_>
          7 19 12 9 -1.</_>
        <_>
          11 22 4 3 9.</_></rects>
      <tilted>0</tilted></_>
    <_>
      <rects>
        <_>
          7 20 12 4 -1.</_>
        <_>
          10 20 6 4 2.</_></rects>
      <tilted>0</tilted></_>
    <_>
      <rects>
        <_>
          7 21 9 9 -1.</_>
        <_>
          10 24 3 3 9.</_></rects>
      <tilted>0</tilted></_>
    <_>
      <rects>
        <_>
          7 22 9 6 -1.</_>
        <_>
          10 22 3 6 3.</_></rects>
      <tilted>0</tilted></_>
    <_>
      <rects>
        <_>
          8 0 2 6 -1.</_>
        <_>
          9 0 1 6 2.</_></rects>
      <tilted>0</tilted></_>
    <_>
      <rects>
        <_>
          8 4 6 5 -1.</_>
        <_>
          10 6 2 5 3.</_></rects>
      <tilted>1</tilted></_>
    <_>
      <rects>
        <_>
          8 4 10 8 -1.</_>
        <_>
          8 4 5 4 2.</_>
        <_>
          13 8 5 4 2.</_></rects>
      <tilted>0</tilted></_>
    <_>
      <rects>
        <_>
          8 14 1 12 -1.</_>
        <_>
          8 18 1 4 3.</_></rects>
      <tilted>0</tilted></_>
    <_>
      <rects>
        <_>
          8 14 6 12 -1.</_>
        <_>
          10 18 2 4 9.</_></rects>
      <tilted>0</tilted></_>
    <_>
      <rects>
        <_>
          8 15 12 6 -1.</_>
        <_>
          12 17 4 2 9.</_></rects>
      <tilted>0</tilted></_>
    <_>
      <rects>
        <_>
          8 19 9 8 -1.</_>
        <_>
          11 19 3 8 3.</_></rects>
      <tilted>0</tilted></_>
    <_>
      <rects>
        <_>
          8 21 9 3 -1.</_>
        <_>
          11 21 3 3 3.</_></rects>
      <tilted>0</tilted></_>
    <_>
      <rects>
        <_>
          9 2 8 8 -1.</_>
        <_>
          11 4 4 8 2.</_></rects>
      <tilted>1</tilted></_>
    <_>
      <rects>
        <_>
          9 5 6 6 -1.</_>
        <_>
          11 7 2 6 3.</_></rects>
      <tilted>1</tilted></_>
    <_>
      <rects>
        <_>
          9 7 6 4 -1.</_>
        <_>
          11 9 2 4 3.</_></rects>
      <tilted>1</tilted></_>
    <_>
      <rects>
        <_>
          9 11 9 3 -1.</_>
        <_>
          12 11 3 3 3.</_></rects>
      <tilted>0</tilted></_>
    <_>
      <rects>
        <_>
          9 11 9 4 -1.</_>
        <_>
          12 11 3 4 3.</_></rects>
      <tilted>0</tilted></_>
    <_>
      <rects>
        <_>
          9 14 9 9 -1.</_>
        <_>
          12 17 3 3 9.</_></rects>
      <tilted>0</tilted></_>
    <_>
      <rects>
        <_>
          9 17 2 8 -1.</_>
        <_>
          9 21 2 4 2.</_></rects>
      <tilted>0</tilted></_>
    <_>
      <rects>
        <_>
          9 22 9 6 -1.</_>
        <_>
          9 25 9 3 2.</_></rects>
      <tilted>0</tilted></_>
    <_>
      <rects>
        <_>
          10 0 3 6 -1.</_>
        <_>
          11 0 1 6 3.</_></rects>
      <tilted>0</tilted></_>
    <_>
      <rects>
        <_>
          10 0 10 4 -1.</_>
        <_>
          10 1 10 2 2.</_></rects>
      <tilted>0</tilted></_>
    <_>
      <rects>
        <_>
          10 4 6 7 -1.</_>
        <_>
          12 6 2 7 3.</_></rects>
      <tilted>1</tilted></_>
    <_>
      <rects>
        <_>
          10 5 2 10 -1.</_>
        <_>
          10 10 2 5 2.</_></rects>
      <tilted>0</tilted></_>
    <_>
      <rects>
        <_>
          10 6 6 6 -1.</_>
        <_>
          12 8 2 6 3.</_></rects>
      <tilted>1</tilted></_>
    <_>
      <rects>
        <_>
          10 6 3 15 -1.</_>
        <_>
          10 11 3 5 3.</_></rects>
      <tilted>0</tilted></_>
    <_>
      <rects>
        <_>
          10 8 9 2 -1.</_>
        <_>
          13 11 3 2 3.</_></rects>
      <tilted>1</tilted></_>
    <_>
      <rects>
        <_>
          10 10 2 12 -1.</_>
        <_>
          10 13 2 6 2.</_></rects>
      <tilted>0</tilted></_>
    <_>
      <rects>
        <_>
          10 17 2 12 -1.</_>
        <_>
          10 20 2 6 2.</_></rects>
      <tilted>0</tilted></_>
    <_>
      <rects>
        <_>
          10 22 1 8 -1.</_>
        <_>
          10 24 1 4 2.</_></rects>
      <tilted>0</tilted></_>
    <_>
      <rects>
        <_>
          10 22 2 6 -1.</_>
        <_>
          8 24 2 2 3.</_></rects>
      <tilted>1</tilted></_>
    <_>
      <rects>
        <_>
          11 0 6 1 -1.</_>
        <_>
          13 0 2 1 3.</_></rects>
      <tilted>0</tilted></_>
    <_>
      <rects>
        <_>
          11 0 9 2 -1.</_>
        <_>
          14 0 3 2 3.</_></rects>
      <tilted>0</tilted></_>
    <_>
      <rects>
        <_>
          11 2 3 15 -1.</_>
        <_>
          11 7 3 5 3.</_></rects>
      <tilted>0</tilted></_>
    <_>
      <rects>
        <_>
          11 3 6 10 -1.</_>
        <_>
          13 5 2 10 3.</_></rects>
      <tilted>1</tilted></_>
    <_>
      <rects>
        <_>
          11 7 6 6 -1.</_>
        <_>
          13 9 2 6 3.</_></rects>
      <tilted>1</tilted></_>
    <_>
      <rects>
        <_>
          11 8 6 5 -1.</_>
        <_>
          13 10 2 5 3.</_></rects>
      <tilted>1</tilted></_>
    <_>
      <rects>
        <_>
          11 12 6 8 -1.</_>
        <_>
          11 12 3 4 2.</_>
        <_>
          14 16 3 4 2.</_></rects>
      <tilted>0</tilted></_>
    <_>
      <rects>
        <_>
          11 17 6 12 -1.</_>
        <_>
          13 21 2 4 9.</_></rects>
      <tilted>0</tilted></_>
    <_>
      <rects>
        <_>
          11 20 6 4 -1.</_>
        <_>
          13 22 2 4 3.</_></rects>
      <tilted>1</tilted></_>
    <_>
      <rects>
        <_>
          11 21 6 6 -1.</_>
        <_>
          13 23 2 2 9.</_></rects>
      <tilted>0</tilted></_>
    <_>
      <rects>
        <_>
          12 5 8 17 -1.</_>
        <_>
          16 5 4 17 2.</_></rects>
      <tilted>0</tilted></_>
    <_>
      <rects>
        <_>
          12 5 8 24 -1.</_>
        <_>
          16 5 4 24 2.</_></rects>
      <tilted>0</tilted></_>
    <_>
      <rects>
        <_>
          13 0 2 1 -1.</_>
        <_>
          13 0 1 1 2.</_></rects>
      <tilted>1</tilted></_>
    <_>
      <rects>
        <_>
          13 0 2 4 -1.</_>
        <_>
          14 0 1 4 2.</_></rects>
      <tilted>0</tilted></_>
    <_>
      <rects>
        <_>
          13 1 4 1 -1.</_>
        <_>
          14 1 2 1 2.</_></rects>
      <tilted>0</tilted></_>
    <_>
      <rects>
        <_>
          13 3 7 24 -1.</_>
        <_>
          13 11 7 8 3.</_></rects>
      <tilted>0</tilted></_>
    <_>
      <rects>
        <_>
          13 4 6 9 -1.</_>
        <_>
          15 6 2 9 3.</_></rects>
      <tilted>1</tilted></_>
    <_>
      <rects>
        <_>
          13 15 6 7 -1.</_>
        <_>
          15 17 2 7 3.</_></rects>
      <tilted>1</tilted></_>
    <_>
      <rects>
        <_>
          14 1 6 29 -1.</_>
        <_>
          17 1 3 29 2.</_></rects>
      <tilted>0</tilted></_>
    <_>
      <rects>
        <_>
          14 8 6 19 -1.</_>
        <_>
          17 8 3 19 2.</_></rects>
      <tilted>0</tilted></_>
    <_>
      <rects>
        <_>
          14 10 6 3 -1.</_>
        <_>
          16 12 2 3 3.</_></rects>
      <tilted>1</tilted></_>
    <_>
      <rects>
        <_>
          14 10 6 10 -1.</_>
        <_>
          17 10 3 10 2.</_></rects>
      <tilted>0</tilted></_>
    <_>
      <rects>
        <_>
          14 20 6 4 -1.</_>
        <_>
          16 22 2 4 3.</_></rects>
      <tilted>1</tilted></_>
    <_>
      <rects>
        <_>
          15 0 1 4 -1.</_>
        <_>
          15 2 1 2 2.</_></rects>
      <tilted>0</tilted></_>
    <_>
      <rects>
        <_>
          16 0 4 4 -1.</_>
        <_>
          16 2 4 2 2.</_></rects>
      <tilted>0</tilted></_>
    <_>
      <rects>
        <_>
          16 5 4 3 -1.</_>
        <_>
          16 5 2 3 2.</_></rects>
      <tilted>1</tilted></_>
    <_>
      <rects>
        <_>
          17 0 3 3 -1.</_>
        <_>
          18 0 1 3 3.</_></rects>
      <tilted>0</tilted></_>
    <_>
      <rects>
        <_>
          17 3 3 6 -1.</_>
        <_>
          15 5 3 2 3.</_></rects>
      <tilted>1</tilted></_>
    <_>
      <rects>
        <_>
          18 0 1 8 -1.</_>
        <_>
          18 4 1 4 2.</_></rects>
      <tilted>0</tilted></_>
    <_>
      <rects>
        <_>
          18 3 2 27 -1.</_>
        <_>
          19 3 1 27 2.</_></rects>
      <tilted>0</tilted></_>
    <_>
      <rects>
        <_>
          18 4 2 8 -1.</_>
        <_>
          16 6 2 4 2.</_></rects>
      <tilted>1</tilted></_></features></cascade>
</opencv_storage>
